#pragma once

// Generated by cpp_minizero/tools/export_weights.py from numpy_network_weights.npz.
namespace minizero_weights {
inline constexpr int INPUT_SIZE = 66;
inline constexpr int HIDDEN_SIZE = 44;

inline constexpr float W0[2904] = {
    -0.123300098f, -0.100677192f, -0.391691685f, -0.341067076f, -0.0373053215f, 0.247111365f, 0.0419752486f, -0.506453454f,
    -0.376528412f, -0.140836269f, 0.0703631267f, -0.298007429f, 0.204669878f, -0.153966531f, -0.177458286f, -0.260752708f,
    -0.179580227f, -0.0440013632f, -0.127632707f, 0.125810549f, -0.0301659945f, -0.12025027f, -0.0767858028f, -0.330942661f,
    -0.454004914f, -0.408305794f, -0.46226114f, -0.090694733f, 0.382778972f, 0.194793046f, -0.143576667f, -0.332490236f,
    -0.137443721f, -0.556780457f, -0.206758291f, -0.333189964f, -0.0725814551f, -0.336637557f, -0.586461961f, 0.246654406f,
    -0.497648776f, -0.342505306f, -0.645688057f, -0.0209784135f, -0.380201995f, -0.179526433f, -0.413295925f, -0.279350698f,
    -0.33599323f, 0.231792495f, -0.350931704f, -0.325436473f, -0.238887548f, -0.283563703f, -0.0645676032f, -0.0458972007f,
    0.308642536f, -0.0695871711f, -0.222812817f, -0.0802050084f, -0.188243523f, -0.582937121f, -0.538898706f, -0.194170773f,
    -0.292136908f, -0.0921107307f, -0.0482091531f, 0.293309003f, -0.304962784f, -0.560265601f, -0.0304605737f, -0.230249092f,
    0.282080531f, -0.0182247888f, 0.26760897f, -0.265476018f, -0.0467987917f, -1.22184253f, -0.128014445f, -0.252947152f,
    -0.35874632f, -0.217205703f, -0.183186278f, 0.321610838f, -0.428839296f, -0.898068488f, -0.42278555f, 0.161435112f,
    -0.210069001f, -0.327547997f, -0.26609695f, -0.0961836353f, -0.780365705f, -0.832165658f, -0.623374343f, -2.88404727f,
    0.609947205f, -0.136043727f, -0.251225591f, -0.150762573f, -0.19503586f, -0.111939304f, 0.110710993f, -0.0523794629f,
    -0.0331048407f, -0.170317844f, -1.41535318f, -0.285653085f, -0.236440837f, -1.08059955f, -0.123023987f, -0.513872981f,
    -0.260049254f, -0.969527721f, 0.331660986f, 0.00148116052f, 1.01651812f, 0.406276643f, 0.0404779352f, 0.287721664f,
    -0.0576808564f, -0.718509793f, -0.0877732933f, -0.129423723f, 0.0200675521f, -0.404085904f, -0.208514929f, 0.727316022f,
    -0.5859254f, -1.08578694f, -0.408753216f, 0.195258483f, -0.41033271f, -0.495360434f, -0.121347412f, -0.712137938f,
    0.114803985f, 0.109467335f, 0.0248301551f, -0.0136472024f, 0.407233864f, -0.102391817f, -0.515180349f, -0.00612265524f,
    0.38164705f, -0.159131289f, -0.379508823f, -0.351252794f, 0.0315194428f, -0.585186362f, 0.128296793f, -0.773840964f,
    0.101922087f, -0.720062852f, -0.132289022f, -0.603783071f, -0.541036129f, -0.0379845202f, -0.0849775746f, -0.117441766f,
    0.118424803f, -0.437927783f, 0.8064785f, 0.161942691f, -0.0593279935f, 0.0361990519f, -0.0308747794f, -0.025798738f,
    -0.221410647f, 0.161402151f, -0.114552565f, -0.284920841f, -0.628020644f, -0.615424752f, -0.522776783f, 0.0828860998f,
    0.154021993f, -0.526818037f, -0.430884391f, 0.255701154f, -0.253628492f, -3.33864856f, 0.180259049f, -2.88669205f,
    0.689352036f, 0.0855526403f, -0.517530024f, -0.355946958f, -0.470624924f, -0.264306754f, 0.0993308574f, 0.0528021567f,
    -0.0594634973f, -0.0942133889f, -1.8352567f, -0.342334092f, -0.15535672f, -0.908093274f, 0.114297904f, -0.42201528f,
    -0.564827442f, -1.03428268f, -0.0702957958f, -0.130867273f, 0.767379999f, 1.54684722f, -0.284077793f, -0.0822121501f,
    -0.0592909157f, 0.014770709f, -0.0998054743f, -0.107976146f, -0.0048222742f, -0.210293412f, -0.3169927f, 0.361332864f,
    -0.316147357f, 0.0464963056f, -0.520453155f, 0.362499416f, -0.151287824f, -0.437667042f, -0.404758751f, -0.419285208f,
    0.156026959f, -0.499891669f, -0.15494217f, -2.12113976f, 1.52427149f, 0.148265496f, -0.144509852f, 0.0698807761f,
    0.164633572f, -0.0210519582f, -0.537404418f, -0.243211046f, -0.174623325f, -0.434241027f, 0.871636629f, -0.0616092309f,
    0.0937216505f, -0.288240939f, 0.0336066782f, -1.39798272f, -0.635209024f, -1.42477298f, 0.496409953f, 0.0519486479f,
    1.53597474f, -1.40855169f, 1.46590078f, -0.253995478f, -0.125210345f, -1.81777513f, -0.181238681f, 0.154643565f,
    -0.0493975766f, -0.0909062922f, 0.495403469f, -0.409757555f, -0.646679163f, 0.0323059559f, -0.414106369f, 0.416616887f,
    0.138747901f, -0.507110953f, -0.0654364452f, -0.278085232f, -0.410268992f, -0.775687695f, -0.929360926f, -8.58697987f,
    2.17711329f, -0.176147804f, -0.131782293f, -0.0182418674f, -0.300015181f, -0.112727135f, -0.0729219466f, 0.140997857f,
    0.005927986f, -0.0989118367f, -0.194879174f, 0.0614222214f, -0.0365223661f, -0.090621002f, -0.0203691851f, -0.692218781f,
    -0.490418255f, -1.45235562f, -0.19360581f, 0.077613771f, 3.15382504f, -5.03243208f, -2.45561576f, 1.03533614f,
    -0.14980641f, -2.31643033f, 0.11307779f, -0.203032658f, -0.0931708366f, -0.209283561f, -0.537050188f, -3.05100775f,
    -0.408343971f, 3.40692067f, -0.149660662f, 0.751818836f, 0.0700571463f, -0.00472034793f, 0.0464094579f, -0.0736451149f,
    -0.312382251f, -0.560395658f, 0.0339428335f, -2.21094561f, -0.221439928f, 0.0656013861f, -0.0154678794f, 0.0335429795f,
    0.179565847f, -0.355009168f, 0.151909158f, 0.0568522438f, -0.0399398766f, -0.290848106f, -0.75307411f, -0.119024895f,
    -0.0754839182f, -0.405595005f, -0.135058627f, 0.95045799f, -0.19724986f, -1.61125433f, -0.212186947f, -0.128719538f,
    1.30391634f, 1.19646049f, 0.0281407349f, -0.505258322f, 0.0298762452f, 0.877258956f, -0.219701543f, 0.156288356f,
    -0.112985283f, -0.280542821f, 0.26619482f, 1.51090217f, -0.261403352f, -0.0627117306f, -0.382105261f, 0.216380939f,
    -0.133321285f, -0.525178194f, -0.255498827f, -0.2706348f, -0.183691934f, 0.0416634381f, -0.397650659f, -4.19830322f,
    1.31788945f, -0.220913649f, -0.462736607f, -0.179060116f, 0.989167631f, -0.0647831112f, -0.32459566f, -0.299351096f,
    0.101832502f, -0.719552457f, 0.729813278f, -0.458505005f, -0.0732074603f, -0.310342729f, 0.0529398322f, -0.150915608f,
    -0.406008601f, -1.89138138f, 0.499107689f, -0.0663769841f, 1.82312834f, -3.77485347f, 2.69049454f, 0.470337838f,
    -0.108574957f, -1.57415652f, 0.0546002686f, -0.0844717845f, -0.224838391f, -0.0459450148f, 0.673993349f, -0.658941686f,
    -0.162714764f, -2.49874735f, -0.192970395f, 1.00334704f, 0.171168506f, -0.196276575f, 0.0540374704f, -0.0189030785f,
    0.0295559112f, 0.433812439f, -0.043945495f, -2.28580213f, 0.686020613f, 0.202774704f, -0.0111146942f, -0.079084821f,
    -1.64929307f, -0.0795935765f, -0.0989546254f, 0.105641939f, -0.215647966f, 0.0111338887f, 0.427751541f, 0.729521751f,
    0.15132837f, -0.254134953f, 0.116761163f, -0.190289155f, -0.327800721f, -2.33837008f, -0.084885709f, 0.097654365f,
    3.46357727f, -3.43572426f, -2.15836716f, -0.612528384f, -0.0537904426f, 0.276925474f, 0.0877166018f, -0.0421786048f,
    -0.319293737f, 0.0234034956f, 0.134030238f, -1.48882329f, -0.364404052f, 2.73654985f, -0.16373311f, 0.775805175f,
    -0.220152885f, -0.382980734f, -0.230775207f, -0.132770434f, -0.119059302f, -0.16377914f, -0.0904950723f, -2.90122509f,
    1.64974356f, 0.100470811f, -0.313403398f, -0.254726827f, -0.457030892f, -0.0858353376f, -0.175686076f, -0.0535324104f,
    0.193022072f, -0.270994633f, -0.219000489f, 0.152669415f, -0.172543406f, -0.146417663f, -0.176185086f, -0.295664638f,
    -0.13056767f, -3.51614642f, -0.093550913f, -0.0319335163f, 3.60599351f, -0.563655019f, -2.79440212f, -0.211864039f,
    -0.0524182469f, -0.579464912f, 0.132440433f, -0.17289497f, -0.259264976f, -0.141357064f, -0.219737455f, -0.684206367f,
    -0.25031963f, 3.34587097f, -0.17788367f, 0.537121356f, -0.0247941352f, -0.334836125f, -0.0135124382f, -0.723916411f,
    -0.475553095f, -2.04949164f, 0.427423537f, -8.8476038f, 8.33810616f, 0.0439067185f, -0.132037476f, -0.0494133756f,
    -2.87878513f, 0.116828009f, 0.159867048f, -0.277794421f, -0.0954936296f, -0.183257386f, -0.121025145f, 0.263790071f,
    -0.146539301f, -0.580275416f, 0.00838679634f, -0.209709004f, -0.0859023482f, -6.11723566f, 0.784580052f, -0.231049314f,
    3.44282627f, -1.27239525f, 2.25862503f, 4.25045347f, 0.0993456617f, -2.41390538f, 0.0379505046f, -0.103736416f,
    -0.161795273f, -0.269622207f, -0.228688702f, -0.920804679f, -0.221684724f, -5.78259754f, -0.524064004f, 3.0852735f,
    0.232171476f, -0.738703668f, 0.334047407f, -0.27718389f, -0.0752091631f, 0.0316379368f, -0.176391035f, -8.03176308f,
    13.2269239f, 0.215927154f, -0.0232572835f, -0.0801464319f, -2.73937416f, -0.136371315f, -0.0384708941f, -0.378191471f,
    -0.145104691f, 0.38945809f, -0.0311470609f, 0.131742924f, -0.139124826f, -0.103883073f, -0.0174511801f, -0.0769152269f,
    -0.575758994f, -5.93990183f, 0.261139095f, 0.154091805f, 6.66231585f, -1.2674197f, -3.8050983f, 24.7920284f,
    -0.272683918f, -1.68974388f, 0.0666923523f, -0.0603008755f, -0.0254511442f, 0.20468235f, -0.0200157091f, 0.0756261945f,
    -0.764611781f, 0.727018058f, -0.865460157f, -8.81934834f, -0.076146692f, -0.218158126f, -0.213875875f, -0.136669859f,
    -0.538341165f, -2.32657242f, -0.242061928f, 0.662117362f, 0.441818804f, -0.0819902122f, -0.298414677f, -0.438465595f,
    -1.14632547f, -0.437544167f, 0.335176557f, -0.312952876f, 0.0506632477f, -0.242211759f, -0.727038503f, -0.115699597f,
    -0.00393474242f, -0.075092338f, 0.0261288323f, -1.20890439f, -0.0271889679f, -0.88131845f, -0.420692354f, -0.231343091f,
    -0.905426085f, -0.0615335554f, -1.02088571f, -0.660717428f, 0.118174843f, 0.0549118817f, -0.231171265f, -0.0250686593f,
    0.00440208893f, -0.27333653f, 0.0166302733f, 1.03294313f, 0.00138549635f, -0.617233455f, -0.0530265905f, 0.258954763f,
    -0.0652128384f, -0.261181355f, -0.195397601f, -0.119495809f, 0.269287825f, 0.113394938f, -0.0723544955f, -0.04154047f,
    -0.86976409f, 0.141046956f, 0.197219998f, -0.203339979f, -0.253315181f, -0.25390926f, 0.162202299f, 0.215247855f,
    0.16692999f, 0.253908783f, -0.381518424f, 0.228743434f, 0.102896526f, -0.163315609f, 0.0520745367f, 0.134318739f,
    -0.0599259287f, -1.88141179f, -0.10412512f, -0.228322148f, 1.70918036f, -0.379563093f, -3.73161578f, -0.592999756f,
    -0.345146447f, 1.03464317f, -0.0949487686f, -0.0542031266f, -0.147285149f, 0.153828919f, -0.079712607f, -0.46838361f,
    -0.00327562285f, 3.72843432f, -0.052402705f, 0.632335663f, 0.169379786f, -0.395417362f, -0.0147532988f, 0.00680670934f,
    -0.00412924914f, -0.163339645f, 0.275826335f, -0.450640023f, 3.07452583f, -0.109860845f, -0.4013367f, 0.024960611f,
    1.9194411f, -0.199938059f, 0.362441838f, 0.0282890908f, -0.215860277f, -0.349891692f, -0.0979517251f, 0.195644438f,
    0.0557680428f, -0.121781923f, -0.178638652f, -0.256351888f, 0.000292447221f, -3.15676022f, 0.164534003f, -0.175533563f,
    2.38302112f, -1.59527206f, -1.65668154f, 1.03015566f, -0.26252991f, -0.317050606f, -0.076382637f, -0.0101781636f,
    -0.129498065f, 0.216059327f, -0.271681279f, 0.196728274f, -0.19922094f, 4.48595428f, 0.04491603f, 1.58543551f,
    0.0883433148f, -0.291985184f, -0.192643717f, -0.210624352f, -0.182486027f, 0.062140882f, 0.405764639f, -4.68297911f,
    13.8028078f, 0.0176579952f, -0.017413158f, -0.216261625f, -4.01008177f, 0.014093278f, -0.0535155348f, 0.0195274297f,
    -0.133466244f, 0.558825612f, 0.0683004856f, 0.206470177f, -0.212611258f, 0.0269976016f, -0.0585136153f, -0.0460772887f,
    -0.0523746274f, -4.28132582f, 0.167238966f, -0.131550163f, 4.32037163f, -0.317797571f, -2.0645411f, 21.9542961f,
    -0.21121487f, -1.24629748f, -0.0939069539f, -0.0915458724f, -0.168024868f, -0.231520504f, -0.156593889f, -0.11189726f,
    -0.27014935f, 1.77625048f, -0.430710495f, -8.11743355f, 0.130415037f, 0.0706809014f, -0.0541362837f, 0.0144216307f,
    0.136101753f, 0.225324601f, 0.138650134f, -0.286057711f, 10.6469879f, -0.226753175f, -0.131973758f, -0.0138115725f,
    -0.46450454f, 0.101526715f, 0.0348586515f, 0.139896661f, 0.0851622224f, 0.18961294f, -0.0353022628f, 0.249000892f,
    -0.231550843f, -0.133540556f, 0.228723884f, 0.0351071432f, 0.103547335f, -4.44877577f, -0.0373468734f, -0.19048439f,
    7.02189779f, -0.0594231747f, -0.210054189f, 5.31029558f, -0.194558099f, 0.0764086619f, 0.05982849f, 0.00305514038f,
    -0.1088413f, 0.220782608f, 0.150657862f, -0.139606997f, -0.00223256927f, 2.18386364f, 0.116084523f, -2.81767583f,
    0.266995668f, -0.943701327f, -0.0427071899f, -0.117772244f, 0.125286311f, 0.0874389708f, -0.161896288f, 4.20120859f,
    47.3394089f, -0.160370961f, -0.0538015626f, -0.0644021481f, 20.4888401f, 0.0796399862f, 0.304631859f, -0.00449979398f,
    -0.12401475f, 1.39869988f, -0.132579908f, 0.453162313f, -0.209439188f, 0.00320642651f, -0.104861647f, 0.10400939f,
    0.244743407f, -32.3936424f, 0.162708417f, 0.158941746f, 46.9766541f, 0.214197487f, -19.1371765f, 48.0044136f,
    -0.0876590237f, -0.805910647f, -0.0578754246f, 0.228685856f, 0.218089402f, -0.0426945388f, 0.0819482729f, 0.518384278f,
    -1.39542103f, -7.74864912f, -0.772371233f, -17.0874615f, 0.251909524f, -0.378364652f, 0.0694167167f, -0.107807152f,
    -0.148777246f, -0.199302882f, -0.119321033f, 0.574552298f, 3.60917711f, -0.222044498f, 0.0789260566f, -0.0837026015f,
    3.55302668f, -0.128299981f, 0.16726397f, -0.344783425f, 0.221029341f, 0.519518435f, -0.051004339f, 0.238434985f,
    -0.224635676f, 0.0277243555f, 0.211584374f, 0.147612378f, -0.0584901609f, -15.5000496f, 0.251211792f, -0.112257369f,
    -0.433330446f, 0.415021956f, 10.9427481f, 2.78435326f, 0.150718823f, -0.647162974f, -0.114466295f, -0.259184659f,
    -0.224980861f, -0.227842048f, -0.106225096f, 0.61233741f, -0.424137652f, -10.2168722f, -0.319171935f, 17.7433319f,
    0.0922831669f, 0.101398684f, 0.0984203741f, -0.146050379f, -0.0939799771f, -0.112436615f, -0.151721194f, -1.37438834f,
    6.83810949f, -0.197769448f, 0.0918671787f, -0.161948606f, 1.21206701f, 0.203815833f, -0.361362964f, -0.269885302f,
    0.196707904f, -0.102875128f, 0.182237566f, -0.0921033546f, 0.224608183f, -0.172436431f, 0.0516251884f, -0.34334448f,
    0.0108448518f, -2.72752452f, -0.0821447f, -0.176516905f, -0.65816915f, -1.17770886f, 4.29510593f, 16.4833202f,
    -0.222395942f, 0.172139674f, -0.145749494f, -0.218780518f, 0.226015404f, 0.0362197459f, -0.0478855409f, -0.965661705f,
    -0.0239606444f, -6.30845118f, -0.283080071f, 2.92156887f, 0.220409214f, 0.0159989726f, -0.182928175f, -0.130567819f,
    -0.228730187f, 0.053433001f, 0.115772903f, -0.0668305084f, -5.60974073f, -0.139157459f, -0.186987355f, 0.0496394709f,
    6.94497728f, 0.256764203f, 0.0126396324f, -0.139353201f, 0.230977654f, 0.0471558683f, -0.0313101262f, -0.16142112f,
    -0.0243452042f, 0.115369312f, 0.226843148f, 0.0770763233f, 0.111289106f, 1.26912534f, 0.0721208528f, -0.220035017f,
    2.35265446f, 0.0464188419f, 2.12693143f, 0.121436931f, -0.207929417f, -0.190361932f, -0.166477889f, 0.00580118597f,
    -0.083706677f, 0.0297593474f, 0.0685631931f, -0.0271425638f, 0.105148174f, 2.35297418f, -0.0180363581f, 0.21264483f,
    -0.174007848f, -0.27783969f, -0.0359090567f, -0.511131167f, -0.240093097f, 0.0137370247f, -0.000828155084f, 0.393022031f,
    -0.134391382f, -0.193288952f, -0.110423073f, -0.04862592f, -0.490509391f, -0.41541183f, -0.0999009311f, -0.0377984866f,
    -0.0560418069f, -0.378213793f, 0.107688755f, -0.667983055f, -0.25582096f, -0.0808208659f, -0.255832434f, -0.444767624f,
    0.0225661527f, 0.39732179f, -0.100330502f, -0.195920736f, -0.414810151f, -0.503910601f, -0.244987056f, 0.085911192f,
    0.0109978644f, -0.166350067f, -0.24146834f, -0.127758771f, -0.211820677f, 0.00362720829f, -0.0808221921f, -0.435265213f,
    0.0680528581f, 0.26862976f, -0.0320914052f, -0.236048773f, -0.0241644252f, -0.191171035f, -0.48662883f, 0.314934373f,
    -0.860157728f, -2.42936873f, 0.0697347224f, 0.48998782f, 0.396847814f, -0.248236641f, -0.634357393f, -0.069157742f,
    -0.895572484f, -0.478021055f, -0.115668796f, -0.183093742f, -0.273884803f, -0.147516116f, -1.26750636f, 0.335744023f,
    -0.0422525778f, -1.18027174f, -0.189001054f, -0.863120556f, -0.00623284653f, 0.398243964f, -0.128801644f, -0.157561466f,
    -0.523134589f, 0.155873805f, -0.137254044f, 0.126940653f, -0.309324026f, 0.588184118f, -0.0225545857f, -0.246623293f,
    -0.137216583f, -0.277918667f, -0.257939368f, -0.37211448f, -0.166292801f, 0.390898377f, -0.0845772475f, -0.202692598f,
    -0.149239436f, -0.00791672058f, -0.182655588f, -0.105448276f, -1.03661609f, -2.31699395f, 1.02926052f, 1.54459286f,
    0.103117034f, -0.0946247205f, -0.51709187f, 4.94122432e-05f, -1.23874962f, -0.243336692f, -0.0635782331f, -0.0535182655f,
    -0.212775111f, -0.460376889f, -0.675456047f, -0.592695832f, -0.157898441f, -0.644894123f, -0.210966885f, -2.57701039f,
    -0.426234782f, 0.814654291f, -0.046141509f, 0.0245419443f, -1.04872704f, -4.00746107f, 0.49646154f, 0.402118832f,
    -0.0631046817f, -0.610768139f, -0.213722959f, 0.0145675549f, 0.098615393f, -0.249999166f, -0.93135947f, -1.83917785f,
    -0.149642587f, 0.0960171148f, 0.503829598f, 0.133986562f, -0.109603606f, 0.0320718624f, -0.194742829f, -0.0841880739f,
    -0.450918704f, 0.218833134f, -0.378456116f, -0.146847427f, 0.638302267f, -0.111501619f, -0.256486565f, -0.273651719f,
    -0.6641711f, -0.27691713f, -0.168193832f, -0.134934813f, -0.217296153f, -0.314169973f, -1.07057607f, -0.740387738f,
    0.0122830458f, -0.418292761f, 0.0375123098f, -1.55543125f, -0.111949585f, 0.0435136892f, 0.0330996849f, -0.123210132f,
    0.137405097f, -0.56418252f, 0.35489887f, 0.109653123f, -0.235280216f, -0.418096781f, -0.213224873f, -0.12768203f,
    -0.18604666f, -0.119439393f, -0.711222529f, 0.397407293f, -0.149190784f, 0.158634901f, -0.793860555f, 0.218233287f,
    -0.257171541f, -0.0168817714f, 0.0183847807f, -0.271825641f, -0.658834815f, -0.908201396f, -0.0491701774f, 2.66862297f,
    -0.202637911f, -0.205085754f, 0.793115675f, -0.331100345f, -0.331320882f, -0.0440545604f, -0.351144671f, 0.0114495531f,
    -0.182953224f, -0.759819388f, -1.6328131f, -0.569244027f, 0.0151176415f, -0.726211488f, -0.117803618f, -1.61889243f,
    -0.0329774916f, 0.870031476f, -0.246574238f, 0.106987759f, -0.970435798f, -3.60597706f, 0.440526456f, 0.26473555f,
    -0.191570982f, -0.0302537531f, -0.16980435f, -0.309790939f, 0.107048877f, -0.015396269f, -0.510028481f, -1.71606803f,
    -0.362259954f, 0.311442286f, 0.507823884f, -0.104174137f, 0.0612389706f, 0.117142364f, 0.35429585f, 0.83276999f,
    -0.332406282f, -0.73062104f, -0.0670868605f, -2.19030356f, 1.96990454f, 0.142684892f, -0.516532481f, 0.0559248887f,
    -0.617576003f, -0.349993378f, -0.331690967f, -0.141784355f, 0.127011225f, -0.159857646f, -1.19039822f, -0.133336037f,
    -0.105179787f, -0.338737637f, -0.139038682f, -1.24715137f, -0.533698022f, 1.24019992f, -0.221780747f, 0.0158014186f,
    -1.03931367f, -1.48049307f, 1.17137361f, 1.14410353f, -0.126293764f, 0.84495002f, -0.0419840515f, 0.0772369653f,
    -0.01591089f, -0.178664446f, -0.547854364f, -1.11834764f, -0.266131878f, 0.262590259f, -0.639896631f, -0.260395586f,
    -0.0340733677f, -0.211559981f, 0.018532306f, 0.233102977f, -0.243002579f, -1.59554923f, 0.0261461921f, -7.61753368f,
    -2.77028251f, 0.122284628f, -0.199318752f, -0.285560191f, 2.95339012f, -0.465981454f, -0.228614077f, 0.0400966555f,
    0.00707379915f, -0.534447193f, -0.11085517f, -0.520770133f, 0.111378223f, -0.500944257f, 0.0660338849f, -1.48684037f,
    -0.314493001f, 2.83467174f, -0.218485564f, -0.1978807f, -1.68101931f, -5.91746521f, 2.3796041f, 0.873949468f,
    -0.0871425718f, -0.859449804f, -0.0247653872f, 0.210095629f, -0.0110067986f, 0.046894554f, -0.311119169f, -3.20001364f,
    -0.199933186f, -0.442614436f, 0.053443715f, 0.452165544f, 0.0732247159f, 0.110633381f, -0.154328153f, 0.135936588f,
    -0.414890081f, -0.261305124f, 0.0901747197f, 1.29692709f, 0.332331568f, 0.0609441102f, -0.0234056432f, -0.128446862f,
    -0.119208075f, 0.189548478f, -0.123541117f, -0.122547045f, 0.148356125f, -0.772922575f, -0.252003372f, 0.0366571248f,
    -0.222542405f, -0.0907147303f, -0.0204243734f, -0.390123278f, -0.208332285f, 1.32247996f, 0.0126795508f, -0.209647432f,
    -1.89634633f, -1.49704516f, -0.141896263f, 0.2678698f, 0.0768461227f, 1.90542638f, -0.151087999f, -0.130620301f,
    0.110453755f, -0.0484855026f, -0.407928824f, -0.480399311f, -0.0176810846f, 0.433081567f, 0.320427686f, -0.2825073f,
    -0.0670770407f, 0.314260453f, -0.086556159f, 0.699080706f, -0.21752961f, -0.0924550444f, -0.0133189978f, -6.70987749f,
    3.30157113f, -0.195315674f, -0.372901976f, -0.173577979f, -1.44202459f, 0.0782454461f, -0.408903897f, 0.229710907f,
    0.190460026f, -0.631293893f, -0.501833677f, -0.404669136f, -0.156241089f, -0.360165298f, -0.0461350866f, -0.536021233f,
    0.110552341f, 1.70069683f, -0.342363983f, 0.092921555f, -1.76468182f, -1.55172491f, 1.21734929f, 1.12293744f,
    0.162522182f, 2.29429293f, -0.203874484f, 0.0658088699f, 0.113533251f, 0.250461161f, -0.331549883f, -1.01454496f,
    -0.278520972f, 0.167621762f, 0.591986477f, -0.142055959f, 0.112943746f, 0.0336054191f, 0.0251713526f, 0.294856578f,
    -0.143965349f, 0.104213819f, 1.13504076f, -6.30496264f, -2.48913574f, -0.0877701342f, -0.134681448f, -0.326886952f,
    2.06748104f, 0.00984463189f, -0.00489807688f, -0.022309348f, -0.241347164f, -0.695477903f, -0.33958742f, -0.0992127359f,
    -0.065489158f, -0.37360394f, 0.22351639f, -0.565709829f, -0.243686154f, 3.36506915f, -0.150912866f, -0.174977288f,
    -2.72962117f, -2.24486923f, 1.01927483f, 0.863111615f, 0.21059157f, 0.0722246766f, 0.143730745f, -0.0444071181f,
    -0.0897662714f, 0.233539745f, 0.0151397251f, -0.71776706f, 0.132128388f, -0.90057683f, 0.46889317f, 0.126386598f,
    0.107141614f, 0.0922022462f, 0.0709811449f, 0.0350870229f, -0.274472177f, -0.333446771f, 0.326080769f, 0.744287908f,
    -3.03036904f, 0.0883128867f, -0.017373139f, -0.202283964f, 2.42248106f, -0.330573648f, -0.0621172227f, -0.30646497f,
    -0.0646085069f, -0.673277497f, -0.0568801649f, -0.308167279f, 0.0579926036f, -0.354970038f, -0.0327711627f, -0.601764679f,
    -0.0424992703f, 3.20819092f, -0.393856347f, -0.189755782f, -3.06238127f, -1.50729668f, 1.98924911f, 0.858235657f,
    -0.24620226f, 0.674407363f, -0.0172060877f, -0.24877882f, 0.21636045f, -0.0877545923f, -0.151841387f, -0.614874899f,
    0.12228445f, 1.01324642f, 0.613250554f, -0.10765025f, 0.0462708399f, -0.359450519f, -0.414647669f, 0.885372698f,
    -0.485792965f, -2.59222198f, 0.355850697f, -2.76582241f, 3.2206192f, -0.0380907916f, 0.131625205f, 0.085373871f,
    -4.14354849f, -0.339549333f, 0.233802721f, -0.0940437466f, -0.128627241f, -0.768279016f, -0.936555624f, -0.517417669f,
    0.172173694f, -0.637508333f, 0.0110774273f, -1.13749278f, -0.234013513f, 2.672786f, -0.101394482f, 0.174169958f,
    -6.28978729f, -4.42801905f, 7.09169197f, 3.89214706f, -0.0520086326f, 0.327254534f, -0.0670858845f, -0.151125088f,
    0.177224621f, 0.0931712762f, -0.383104861f, -1.44488096f, 0.0894997939f, -1.4900378f, -0.253534287f, 2.8765862f,
    0.0633771271f, 0.555875778f, 0.0250851475f, 0.195582688f, -0.0221762173f, -2.3585248f, 0.290159434f, -2.39793992f,
    -4.00919485f, -0.106445163f, 0.072627008f, 0.558475733f, 0.423754215f, -0.0980572477f, 0.088293694f, 0.00446377788f,
    -0.0398297459f, -0.96022737f, -1.37307179f, -0.518606365f, -0.0929941982f, -0.193817049f, -0.0240302365f, -0.92265892f,
    0.315067559f, 4.63325739f, -0.097279273f, -0.0387859195f, -6.3526144f, -5.39060211f, 10.9543037f, -12.3613596f,
    0.219755024f, 0.854678869f, -0.0716213286f, -0.00841269549f, -0.0277634691f, 0.176961541f, -0.226634115f, -2.84154987f,
    0.879490674f, -2.94429731f, 0.260042548f, 17.3995876f, -0.36656481f, 0.17435655f, -0.20397231f, -0.0484205931f,
    -0.296494484f, 0.208642423f, -0.0331573524f, 1.06581724f, -0.844155967f, 0.160092697f, -0.433079153f, -0.281737924f,
    -1.49857485f, 0.369391531f, -0.0841958001f, 0.0377904661f, 0.0701283067f, 0.140520841f, -0.232979059f, -0.00517442264f,
    0.104121983f, 0.0788575411f, -0.0742344037f, -0.780159712f, 0.00260704942f, -0.0742284209f, -0.262711942f, 0.0765755549f,
    -0.637726426f, -0.998832703f, 0.65359503f, -0.402806073f, -0.0481139682f, 0.434872717f, -0.21551773f, 0.104576252f,
    -0.0417074747f, 0.0597148053f, 0.0426243395f, 0.440829992f, 0.066751264f, -0.546404064f, -0.167968109f, 0.0219292641f,
    -0.198378026f, -0.166455463f, -0.149033248f, 0.246102035f, 0.228087038f, -0.0968090072f, 0.267795801f, 1.07207537f,
    -3.91831589f, -0.152650237f, 0.436674654f, -0.15298675f, 3.37155676f, -0.0632029995f, -0.213396251f, 0.160333961f,
    -0.204980209f, -0.0562400483f, -0.233979687f, -0.272894502f, 0.108032651f, 0.00521520479f, 0.173830494f, -0.0105792955f,
    -0.12103942f, 2.0048449f, -0.148804978f, -0.129935533f, -2.2708292f, 1.69578934f, -0.481467813f, 1.05824089f,
    0.210108891f, 0.152870804f, -0.166403502f, -0.171300158f, 0.15163067f, 0.0738507435f, 0.249552742f, -0.70662123f,
    0.207902551f, 0.234134331f, 0.0667414218f, 0.067146793f, 0.108918265f, 0.369364649f, -0.115263417f, 0.618139386f,
    -0.0259404927f, 0.173606262f, -0.133255929f, -1.20302522f, -1.01371515f, -0.00256624818f, 0.0445854738f, -0.0966394618f,
    3.61553693f, 0.341694027f, 0.139261276f, 0.0478873216f, 0.0250819605f, -0.0402186699f, -0.190974534f, -0.136542052f,
    -0.102659643f, -0.0926989168f, 0.125333965f, -0.369791061f, -0.0965826288f, 2.63706136f, 0.0601520054f, 0.0127587765f,
    -3.37051702f, -0.481249899f, 2.46514702f, 2.07738519f, 0.0787231028f, 1.21656799f, -0.0376058519f, -0.0562079214f,
    0.106577463f, 0.066801317f, -0.101910248f, -0.435115963f, 0.0715576187f, 0.715076149f, -0.12943919f, 0.859294415f,
    -0.256963938f, 0.347004086f, 0.0950545594f, 0.0978452265f, -0.258293301f, -0.357394218f, 0.641211212f, -0.572246313f,
    -2.80251622f, 0.0167431831f, 0.203263432f, 0.0767837465f, 1.25483012f, -0.21571748f, -0.0371131487f, 0.335647047f,
    0.0361022055f, -0.420476526f, -0.442094117f, -0.315977037f, -0.184620619f, -0.219358176f, -0.234932929f, -0.685095489f,
    -0.151387542f, 3.16774178f, -0.162784636f, 0.0472068489f, -4.51124334f, -2.75909829f, 11.1521797f, -9.81188393f,
    -0.0606844053f, 0.513759196f, 0.196456075f, -0.224252701f, -0.0638128594f, -0.185719848f, -0.224632725f, -1.54253173f,
    0.347400308f, -2.26815605f, 0.150030896f, 16.1507797f, 0.160823137f, -0.0156494062f, 0.139307603f, 0.14145644f,
    -0.0400548428f, -0.461499989f, 0.436394751f, 0.2637586f, -1.00104117f, -0.0551514104f, -0.0156061593f, 0.261643112f,
    1.95668304f, -0.0417699628f, 0.0157063156f, 0.149439603f, 0.325485975f, -0.260922492f, -0.226537958f, -0.232786685f,
    0.134753734f, -0.0498927571f, -0.245152727f, -0.000197444475f, -0.0750521198f, 5.58048916f, 0.150586829f, 0.0570193715f,
    -2.86829376f, -0.988557518f, 9.35928059f, -3.67714119f, -0.0134176817f, 0.535956323f, -0.206766814f, -0.0191059709f,
    -0.154588982f, -0.156747386f, 0.0715785623f, -0.457580864f, -0.0840705857f, -1.65077174f, 0.212191314f, 3.91078067f,
    0.0583827719f, 1.10066521f, -0.0218518581f, -0.228994787f, -0.22026661f, -0.00292496593f, 0.206050113f, -0.224460766f,
    -20.9832973f, 0.166996241f, 0.21492593f, -0.0234771352f, -11.0124292f, -0.0675337315f, -0.0899175555f, 0.342163056f,
    0.0614612103f, -1.2293694f, 0.165574744f, -0.319312841f, -0.182133332f, 0.0687757581f, -0.226171017f, 0.735663593f,
    0.121017583f, 40.6838112f, -0.412601143f, -0.017743364f, -29.853651f, 0.92897743f, 41.5703125f, -20.8839359f,
    0.0853349194f, 0.845125198f, 0.0834944248f, 0.108615845f, 0.144263983f, -0.194204703f, 0.289648384f, -0.8218714f,
    1.40780127f, 15.3203344f, 0.511728883f, 39.394928f, -0.142720327f, 0.492091209f, 0.1379392f, -0.177653447f,
    -0.0505860485f, -0.0942841321f, -0.0221917387f, -0.469071358f, 8.99709797f, 0.0406244099f, 0.193905845f, -0.0241405815f,
    -12.1413813f, 0.201471269f, 0.254388839f, -0.0530389547f, -0.208588794f, -0.716040909f, 0.0179976579f, -0.0575895831f,
    0.0584157705f, -0.124954276f, -0.17996642f, -0.0697631836f, -0.141850248f, 0.0388863645f, -0.235264421f, -0.0498850793f,
    -15.8219948f, 0.113265209f, 1.78938007f, 20.121067f, -0.0556713007f, 0.354584545f, -0.205267996f, -0.0888715684f,
    -0.220691532f, 0.0639148802f, 0.202652887f, -0.151783317f, 0.629472971f, 3.37577796f, 0.32684496f, 3.43933439f,
    -0.05386981f, -0.176092014f, -0.16635792f, -0.193632424f, -0.0320163891f, -0.329413354f, 0.622915685f, -4.91335392f,
    4.80703783f, 0.191134542f, 0.109076023f, 0.114366516f, -5.14410877f, 0.18572031f, -0.102540664f, -0.255617619f,
    -0.164054364f, -0.145257235f, -0.113896064f, 0.100971274f, 0.156886846f, -0.101876318f, -0.0796382129f, 0.0792351663f,
    -0.159465984f, -0.966741741f, -0.54078871f, -0.174988806f, -2.95929623f, -0.867450058f, 5.50902033f, 3.83680034f,
    0.0347058401f, -1.12710953f, -0.0268064886f, 0.137461662f, -0.03098513f, 0.104066767f, 0.260329247f, 0.0452174284f,
    0.0904951021f, 1.44475126f, -0.347144574f, 12.841054f, -0.00244357111f, 0.400447488f, 0.197757468f, -0.0537856966f,
    -0.128866538f, -0.120289326f, 0.375937432f, -0.080908075f, 1.52861917f, -0.0905226171f, -0.0172360707f, 0.0370079875f,
    2.08384132f, 0.107757606f, -0.0846798941f, -0.101554111f, 0.118997902f, -0.224085689f, -0.0874649435f, 0.124820337f,
    0.21169433f, -0.193672776f, 0.0494874604f, -0.042316664f, 0.0478000976f, 2.61273193f, -0.0275025759f, 0.200799644f,
    1.9983691f, -0.107216455f, -5.53084946f, -1.07560444f, 0.16239132f, 0.193602085f, 0.0896476731f, -0.0137158735f,
    -0.184846014f, 0.079559654f, 0.0349742584f, -0.620161057f, 0.333054036f, 4.89330816f, 0.054545749f, -0.936867297f,
    -0.184895277f, -0.269643843f, -0.0544980466f, 0.0759200007f, -0.311577886f, -0.522640586f, -0.369284719f, 0.271344423f,
    -0.161818594f, -0.0607754737f, -0.265615463f, 0.0670553446f, -0.271965742f, -0.157866523f, -0.0432363003f, 0.135246068f,
    -0.126044869f, -0.192809567f, -0.596829951f, -0.26760897f, 0.152816623f, -0.0612428375f, -0.243754745f, -0.687872529f,
    0.00687040575f, 0.351594925f, -0.236183986f, -0.220491379f, -0.318795621f, -1.51605403f, 0.661266506f, -1.04434907f,
    -0.213893354f, 0.0278964341f, -0.0449007377f, -0.272133887f, -0.0181169193f, -0.147298142f, -0.0353725776f, -1.08059132f,
    -0.226648822f, 0.168729544f, -0.171233654f, 0.550454795f, -0.141996026f, 0.0787957981f, -0.283722013f, 0.124484211f,
    -0.227114856f, -0.661558628f, -0.0130567616f, 0.699478149f, -0.419591904f, -0.0267685056f, -0.41759932f, 0.0933147818f,
    -0.405810922f, -0.103827879f, -0.227336571f, 0.138091058f, -0.136616722f, -0.157475039f, -0.294274867f, -0.349483579f,
    -0.223612577f, -0.101316832f, -0.0720352605f, -0.459460914f, -0.129259229f, 0.102711812f, -0.18524535f, 0.0439258292f,
    -0.513691247f, -1.74476683f, 0.303679496f, -0.944599807f, 0.0548847243f, 0.196292207f, -0.23894152f, 0.0295397192f,
    -0.129343733f, 0.152049422f, -0.0965892375f, -0.919533253f, 0.0650647283f, -0.113123506f, -0.0170639139f, 0.39626199f,
    -0.0272662174f, 0.0513963811f, -0.118139572f, 0.185857028f, -0.22290048f, -0.618397951f, -0.0695021749f, 0.321663886f,
    -0.461639583f, 0.218888789f, -0.336312234f, -0.174651444f, 0.0117353303f, 0.0182587374f, 0.0423077419f, 0.0985313356f,
    -0.165910497f, -0.334095806f, -0.192250222f, -0.068620272f, -0.00270155072f, -0.226916119f, -0.117218494f, -0.448585868f,
    -0.161073565f, 0.464206457f, -0.0434540212f, 0.0744817853f, -0.428318501f, -1.57991421f, 0.225473657f, -1.27310061f,
    0.0575931445f, 0.174640611f, -0.00774233649f, 0.125451311f, -0.179615989f, 0.178947806f, -0.188278332f, -1.11639571f,
    -0.104141414f, -0.184204698f, 0.039162416f, 0.500333607f, -0.300065935f, -0.0776720569f, -0.35169962f, 0.0879983231f,
    -0.111087568f, -0.430241495f, -0.208622336f, 0.642101526f, -0.140651435f, -0.0509850383f, -0.0742780194f, -0.0988224372f,
    -0.299035132f, -0.117976144f, -0.125930712f, -0.282780081f, -0.0920443982f, -0.104849949f, -0.601990759f, 0.0146527067f,
    0.145001739f, -0.0376717411f, 0.160031974f, -0.535241246f, -0.249802634f, 0.256685883f, -0.0419342257f, 0.191564247f,
    -0.280028343f, -1.7068876f, 0.554415047f, -0.835036218f, -0.272847086f, 0.247214824f, 0.170781732f, -0.0958524495f,
    -0.00341276592f, 0.0330321267f, -0.105177492f, -1.10323858f, -0.282441974f, 0.0575028881f, -0.080827944f, 0.826059997f,
    -0.10524153f, 0.0438774265f, -0.393176675f, 0.124235429f, -0.0612848252f, -0.42076543f, -0.257915854f, 0.379247695f,
    -0.403725147f, 0.00100791454f, -0.142264426f, 0.0539244339f, -0.218239516f, -0.0598450005f, -0.12692824f, 0.0416596755f,
    -0.0527198166f, 0.0245712083f, -0.312345117f, 0.0131681692f, -0.0337474942f, -0.299454331f, 0.0611902587f, -0.873884916f,
    -0.0788128302f, 0.484971732f, -0.317777902f, 0.0893214047f, -0.469431579f, -1.74517715f, 0.231613204f, -1.10005164f,
    -0.0799121782f, 0.075952664f, -0.166003644f, -0.0827998146f, -0.164498791f, 0.129078493f, -0.0675872862f, -1.1120131f,
    -0.109539315f, 0.149397314f, -0.0243762489f, 0.582066f, -0.223706812f, -0.0653888807f, -0.258133352f, 0.0604265258f,
    -0.147688046f, -0.405908793f, -0.0748645216f, 0.329609066f, -0.11808373f, -0.112237766f, -0.348346353f, 0.0751348585f,
    -0.184981853f, -0.15048781f, -0.065676555f, -0.121256717f, -0.244192913f, -0.257157773f, -0.51473695f, -0.0796336681f,
    -0.15495728f, -0.221870497f, -0.163676322f, -0.800613284f, -0.335516602f, 0.448845744f, -0.310583502f, -0.261511207f,
    -0.639975727f, -1.71274769f, 0.560341775f, -0.838066995f, -0.00528989686f, 0.372383475f, 0.173542291f, 0.0356735066f,
    0.0204642732f, 0.014272511f, -0.142020851f, -0.775539637f, 0.0172606129f, 0.187858284f, -0.209775224f, 0.463617951f,
    -0.282092422f, 0.0291525908f, -0.191056207f, 0.0918130726f, -0.164686814f, -0.350903302f, -0.339097798f, 0.423817247f,
    -0.124552667f, 0.21496895f, -0.256919265f, 0.157793313f, -0.348271042f, -0.01888646f, -0.398105651f, -0.248759702f,
    -0.039196033f, -0.369939923f, -0.617826521f, -0.300652206f, -0.0782109201f, -0.231072173f, -0.0947051868f, -0.519094229f,
    -0.298459083f, 0.512431026f, -0.0978624672f, 0.0435060486f, -0.50422734f, -1.47096491f, 0.608326733f, -0.957200646f,
    0.0219361205f, 0.213424012f, 0.0417144261f, 0.0755328164f, -0.154724434f, -0.197497636f, -0.364799917f, -0.780707598f,
    -0.265438318f, 0.0600151643f, 0.023850644f, 0.473963261f, -0.205431104f, -0.150453776f, -0.113033347f, 0.0437981114f,
    -0.353668243f, -0.716402531f, -0.420269936f, 0.527670801f, -0.370263636f, 0.113713682f, -0.300308824f, -0.194189757f,
    -0.263121694f, -0.0756319091f, -0.136804789f, 0.0509732254f, -0.149015829f, -0.14985764f, -0.44959563f, -0.371262789f,
    -0.178982317f, -0.238383844f, -0.0313570946f, -0.505621016f, -0.335260361f, 0.529465079f, 0.0926289856f, 0.133080885f,
    -0.332198143f, -1.58944023f, 0.300436765f, -0.95207119f, -0.0556878448f, 0.363905668f, -0.153793156f, -0.12676841f,
    0.0521189235f, 0.159693152f, -0.18098633f, -0.996307373f, -0.306516349f, 0.191808581f, 0.0824977979f, 0.472504824f,
    -0.323422998f, -0.174182743f, -0.333431989f, 0.106719412f, -0.114803523f, -0.567746878f, -0.0977135971f, 0.457788438f,
    -0.460728288f, 0.102229327f, -0.385665894f, -0.278259307f, -0.0197333898f, -0.158417359f, -0.0587283559f, 0.037322361f,
    -0.0791421235f, -0.230507672f, -0.297958732f, -0.253091872f, -0.198914006f, -0.35958752f, 0.179990053f, -0.666871548f,
    0.023878416f, 0.252248466f, -0.213188246f, -0.1964183f, -0.646532953f, -1.52065969f, 0.247112483f, -1.08549929f,
    -0.167090416f, 0.214422241f, 0.153221071f, 0.0734875128f, -0.0379173122f, -0.245485649f, -0.319947809f, -0.907072783f,
    0.0995530933f, -0.0987055898f, -0.189233258f, 0.58596772f, 0.0774503425f, -0.161996648f, -0.220244959f, 0.117402211f,
    -0.260865837f, -0.560111761f, -0.242426753f, 0.443121344f, -0.40300405f, -0.224117786f, -0.334072828f, -0.287482589f,
    -0.395835549f, -0.191780493f, -0.387076229f, -0.0694622844f, -0.0909397602f, 0.0186759643f, -0.280902207f, -0.248466268f,
    -0.148686469f, -0.310794175f, -0.253605455f, -0.539349198f, -0.215463385f, 0.469135106f, -0.0539917685f, -0.0688309222f,
    -0.54800874f, -1.50790846f, 0.41661033f, -1.02528417f, 0.132058561f, 0.427397192f, 0.12006323f, -0.0836285055f,
    -0.175376073f, 0.113453589f, -0.103645891f, -0.814249992f, 0.0519830585f, 0.0204876978f, 0.14492029f, 0.546141684f,
    -0.224261403f, -0.0673875511f, -0.101580717f, -0.203001827f, -0.0710514113f, -0.270990759f, -0.151433423f, 0.612226665f,
    -0.324201107f, -0.0292047858f, -0.28515023f, 0.0627306923f, -0.0245747119f, -0.191135719f, -0.115018643f, -0.191973463f,
    -0.101528421f, -0.360402316f, -0.253913641f, -0.201727435f, 0.232441485f, -0.11797791f, -0.0164250415f, -0.487369984f,
    -0.22238414f, 0.133881986f, -0.134181961f, 0.163344428f, -0.538997114f, -1.49130571f, 0.627161562f, -0.930695534f,
    -0.0426782966f, 0.00588773191f, -0.10381525f, 0.160245404f, -0.171601221f, -0.180875301f, -0.42041561f, -0.754965663f,
    -0.00997250248f, -0.101033852f, 0.00566660846f, 0.647443831f, -0.223204762f, -0.0253708325f, -0.0439485423f, -0.0689439327f,
    -0.119674064f, -0.491667986f, -0.339164227f, 0.323446661f, -0.338958085f, -0.223600045f, -0.163762763f, 0.113992043f,
    0.0203486495f, 0.0108657787f, -0.0585264191f, 0.115684181f, 0.109482162f, -0.367093831f, -0.476157367f, -0.340773076f,
    -0.0433051288f, -0.133475006f, -0.166558564f, -0.484895617f, -0.0944619849f, 0.457458854f, -0.166529551f, -0.00403934764f,
    -0.651833832f, -1.42046714f, 0.474355906f, -1.01635087f, 0.127286226f, 0.0714437068f, 0.0617836155f, 0.151104942f,
    0.0340946428f, -0.0624760613f, -0.456926912f, -0.706801414f, -0.275109142f, -0.00522240391f, 0.071582146f, 0.730701029f,
    -0.322571993f, -0.252202868f, -0.0100556137f, 0.161201119f, -0.335153967f, -0.639152288f, -0.122112997f, 0.33117196f,
    -0.5004583f, -0.125025332f, -0.0353585854f, -0.205529422f, -0.161978081f, -0.233217165f, -0.0784474984f, -0.286430269f,
    -0.233115211f, -0.189661473f, -0.171392962f, -0.01678879f, -0.101966947f, -0.0425779335f, 0.181462348f, -0.832614541f,
    -0.0398540162f, 0.527493596f, -0.350261718f, -0.154819667f, -0.465597153f, -1.48257208f, 0.37638852f, -1.21335673f,
    -0.00962422043f, 0.213363424f, -0.153878927f, -0.253236562f, 0.139093891f, -0.0484617352f, -0.333705932f, -1.12302542f,
    -0.211472794f, 0.106978104f, -0.0317267925f, 0.763359249f, -0.331657529f, -0.10042458f, -0.232047185f, -0.208863184f,
    0.0800212175f, -0.612488031f, -0.249131709f, 0.657183647f, -0.269837797f, -0.17089051f, -0.200834051f, 0.0905131772f,
    -0.220623076f, -0.0214151274f, -0.380065471f, 0.133844912f, 0.178603932f, -0.233940855f, -0.440686941f, -0.226710692f,
    -0.183535248f, -0.0886914358f, -0.093983978f, -0.550729275f, -0.33188197f, 0.422371268f, -0.183490679f, -0.172463372f,
    -0.267760217f, -1.35660255f, 0.496386558f, -0.880070508f, -0.245613635f, 0.23576735f, -0.113316484f, 0.0112102367f,
    0.189196154f, -0.162801206f, -0.342022121f, -1.04426396f, -0.0324312113f, -0.133342832f, -0.206412271f, 0.457859278f,
    -0.0900360867f, -0.22248897f, -0.262805581f, 0.0570011698f, -0.1615161f, -0.641225815f, -0.24138844f, 0.243388847f,
    -0.516449094f, -0.165707648f, -0.328988314f, 0.152184576f, -0.0225505475f, 0.018482497f, -0.060279537f, -0.253760606f,
    0.0999888405f, -0.40439558f, -0.262697518f, 0.0635944083f, -0.0446340442f, -0.0802264437f, 0.0442737117f, -0.724144816f,
    -0.0621927567f, 0.175165385f, -0.278670222f, -0.0270007327f, -0.606805503f, -1.55518568f, 0.25922963f, -1.18529367f,
    0.129652515f, 0.273325384f, 0.105215661f, -0.183453515f, 0.118080564f, -0.182851583f, -0.322896838f, -0.995242596f,
    -0.123642579f, 0.223559171f, -0.224808574f, 0.551032841f, -0.184359491f, -0.102290116f, -0.229385063f, -0.131545365f,
    -0.357265681f, -0.658000231f, -0.122221939f, 0.376585096f, -0.298488498f, 0.206789464f, -0.266973376f, -0.204087466f,
    -0.337487251f, -0.224301681f, -0.141958922f, -0.00926080346f, -0.183726475f, -0.36144653f, -0.511942625f, 0.045439858f,
    0.17579776f, -0.319374233f, -0.116220504f, -0.893164754f, 0.0356706344f, 0.252536863f, 0.0954286605f, 0.0582379624f,
    -0.550447047f, -1.59818983f, 0.602442682f, -0.883222878f, -0.185109109f, 0.334124148f, 0.19743371f, 0.142848656f,
    -0.0795174092f, -0.27071476f, -0.0524701923f, -0.932044864f, -0.303912759f, 0.124008641f, -0.152561426f, 0.386589944f,
    0.0339486003f, -0.199664563f, -0.360135049f, -0.0808008462f, -0.253428787f, -0.470192343f, -0.172663808f, 0.641100526f,
    -0.327107489f, -0.208235607f, -0.374310732f, 0.00974767562f, -0.0386845022f, 0.00737237884f, -0.362252682f, 0.0329328701f,
    0.00409778673f, -0.105432957f, -0.576394916f, -0.310619026f, -0.128089815f, -0.15365015f, 0.139822096f, -0.85124135f,
    0.0187922195f, 0.453935087f, -0.240372047f, 0.0124819065f, -0.627940595f, -1.51540744f, 0.300411433f, -1.17825866f,
    -0.00377993449f, -0.0142584471f, 0.070444189f, -0.153445974f, 0.155019775f, -0.193319619f, -0.404935241f, -0.84366703f,
    -0.227629617f, -0.0747385919f, -0.0262693185f, 0.828270495f, -0.17134884f, -0.300750971f, -0.0122927306f, -0.0654132664f,
    -0.15640007f, -0.377877384f, -0.143017083f, 0.389519423f, -0.161919802f, -0.0754909962f, -0.242195964f, -0.191954881f,
    -0.414187878f, -0.391752601f, -0.230434611f, -0.180733696f, 0.172580913f, -0.321183413f, -0.285277963f, 0.0215092115f,
    0.107278168f, 0.00386874797f, -0.185096323f, -0.50121063f, -0.330514312f, 0.520577192f, -0.349251688f, 0.0608387217f,
    -0.610884845f, -1.69716585f, 0.5573228f, -1.2203722f, 0.168505788f, 0.165509507f, -0.0451581553f, -0.00829097815f,
    -0.00833378639f, -0.0219236575f, -0.0638952628f, -1.00548863f, -0.0527288765f, 0.0354223177f, 0.077591151f, 0.702030122f,
    -0.0803530365f, -0.326850444f, -0.166890785f, -0.125738621f, -0.102111027f, -0.727323055f, 0.00685250526f, 0.517868817f,
    -0.324778795f, -0.158984244f, -0.0487562977f, -0.2159639f, -0.334329069f, -0.0914428458f, 0.036914479f, 0.0765580535f,
    0.105032198f, -0.358776212f, -0.568411708f, 0.0506702811f, -0.0620787889f, -0.272501051f, -0.053204298f, -0.556038976f,
    -0.0662735328f, 0.278654695f, -0.352968007f, 0.0253722407f, -0.439384162f, -1.66326606f, 0.352261573f, -0.957702458f,
    -0.0277760979f, 0.0376358256f, -0.173826605f, -0.199476615f, -0.11322432f, 0.0990126505f, -0.121577412f, -1.05760491f,
    -0.345829368f, 0.0423371345f, -0.214272186f, 0.827531517f, 0.103184409f, -0.274912059f, -0.0736813173f, 0.173579097f,
    -0.232307315f, -0.491054177f, -0.356470704f, 0.33093366f, -0.424414277f, -0.143756062f, -0.270145357f, 0.0623451583f,
    -0.175908461f, -0.311770082f, -0.344788611f, -0.302141666f, -0.0476517677f, -0.0557549261f, -0.5552876f, -0.132228479f,
    -0.14493832f, -0.365665346f, -0.00114503538f, -0.546940625f, -0.0473005436f, 0.236272812f, -0.209634557f, -0.226214036f,
    -0.223323032f, -1.62900424f, 0.225805745f, -1.25855088f, 0.0197169967f, -0.00792881288f, -0.146723717f, -0.00612750417f,
    -0.0646081865f, 0.0192938298f, -0.350090384f, -1.13329256f, -0.291508615f, -0.11353834f, 0.169105887f, 0.523869097f,
    0.0718945265f, -0.317038357f, -0.145071536f, -0.0159303676f, 0.0110440822f, -0.378405303f, 0.00709372526f, 0.674446106f,
    -0.33861202f, 0.20459336f, -0.205871269f, -0.214210719f, -0.130357355f, -0.218692526f, -0.128114074f, -0.206298083f,
    0.0683943927f, -0.0827325359f, -0.636681974f, -0.068289645f, 0.0508523881f, -0.285040677f, 0.0267078374f, -0.780266404f,
    0.032495115f, 0.515809536f, 0.010892651f, 0.197725371f, -0.356253982f, -1.3759408f, 0.482094556f, -0.84487623f,
    -0.254130214f, 0.408907056f, 0.0622791238f, 0.157930419f, 0.00787121709f, -0.12015038f, -0.370381743f, -0.795382857f,
    -0.268184215f, -0.196829021f, 0.169204235f, 0.396094263f, 0.0164184757f, -0.229365826f, -0.214759991f, -0.100521579f,
    -0.306577593f, -0.291335404f, -0.348069459f, 0.342331558f, -0.515798509f, 0.0286687911f, -0.00199251645f, 0.0168596674f,
    -0.31621173f, -0.141476244f, -0.328019857f, -0.172510996f, -0.157333449f, -0.0358528569f, -0.381819606f, -0.354602128f,
    0.0775996447f, -0.112857662f, -0.104964927f, -0.727422714f, -0.362227857f, 0.295011699f, -0.144859314f, 0.125046745f,
    -0.434634268f, -1.60466027f, 0.364373296f, -1.01246214f, 0.071916692f, 0.0891557336f, -0.209077179f, -0.116550282f,
    -0.223883823f, -0.157834709f, -0.389593512f, -0.898929358f, 0.0710902959f, -0.0970346928f, -0.130273849f, 0.698272765f
};

inline constexpr float B0[44] = {
    -0.343642145f, -0.618924975f, -0.164120972f, -0.711398661f, -0.298388153f, 0.0233812965f, -0.301473975f, -3.13742781f,
    -16.9034882f, -0.355168283f, -0.121863753f, -0.146452263f, 0.362867713f, -0.390323967f, -0.247000843f, -0.261832416f,
    -0.381037146f, -0.30567953f, 0.858977437f, -0.207112163f, -0.374920964f, -0.190734684f, -0.293284178f, -0.380364388f,
    -0.397886485f, -1.39834821f, -0.05791343f, -0.198256657f, 3.42805314f, 1.14661288f, -22.2346668f, -12.994565f,
    -0.34511894f, -2.50090075f, -0.29880029f, -0.278041124f, -0.405100822f, -0.347722411f, -0.3956514f, 1.94889283f,
    -0.571404696f, -2.65296197f, -0.676324129f, -22.8867416f
};

inline constexpr float W1[44] = {
    -0.0290272348f, 0.0111767557f, -0.209045067f, 0.0344036482f, 0.0109235989f, -0.202690318f, -0.0813648626f, 0.0643033087f,
    0.0827638507f, 0.0188631713f, -0.304912865f, 0.095013909f, 0.057582438f, 0.0425582379f, 0.107527457f, -0.0467644073f,
    -0.0311408006f, 0.0266644638f, -0.147948831f, -0.204164177f, 0.00576344365f, 0.028794447f, 0.0237280726f, -0.142804369f,
    -0.026686525f, -0.0438991673f, -0.429672986f, 0.148939922f, 0.0335141793f, -0.000571026525f, -0.0474029891f, 0.0628161803f,
    0.00748284021f, 0.0176175926f, 0.026910061f, -0.00663958583f, -0.010414754f, -0.02241976f, 0.0076201004f, -0.0655880421f,
    0.00110474671f, -0.0361931846f, 0.0650215298f, -0.217976838f
};

inline constexpr float B1[1] = {
    0.0527112596f
};

}
